Language model created by QuickLM on Wed Dec 13 09:23:38 EST 2017
Copyright (c) 1996-2010 Carnegie Mellon University and Alexander I. Rudnicky

The model is in standard ARPA format, designed by Doug Paul while he was at MITRE.

The code that was used to produce this language model is available in Open Source.
Please visit http://www.speech.cs.cmu.edu/tools/ for more information

The (fixed) discount mass is 0.5. The backoffs are computed using the ratio method.
This model based on a corpus of 29 sentences and 35 words

\data\
ngram 1=35
ngram 2=62
ngram 3=60

\1-grams:
-0.9526 </s> -0.3010
-0.9526 <s> -0.2497
-2.4150 BERLIN -0.2497
-2.1139 BROWSER -0.2497
-1.8129 CLOSE -0.2875
-2.4150 CONNECTED -0.2994
-2.4150 DATE -0.2497
-2.4150 DISPLAY -0.2994
-2.4150 DUBAI -0.2497
-2.4150 FACEBOOK -0.2497
-2.4150 FUNNY -0.2497
-2.1139 GET -0.2977
-2.4150 HOUSE -0.2497
-2.4150 LONDON -0.2497
-2.4150 MAC -0.2497
-2.4150 MAIL -0.2497
-2.1139 MEDIA -0.2977
-2.4150 METEO -0.2497
-2.4150 NEXT -0.2994
-2.1139 NOTEPAD -0.2497
-1.2688 OPEN -0.2699
-2.4150 OPERA -0.2497
-2.1139 PLAYER -0.2497
-2.4150 POPULAR -0.2497
-2.4150 RANDOM -0.2497
-1.8129 REDDIT -0.2440
-2.4150 ROME -0.2497
-1.5699 SHOW -0.2892
-2.4150 SINGAPORE -0.2497
-2.4150 TECHNO -0.2497
-1.6368 TIME -0.2402
-2.4150 TRAIN -0.2497
-2.4150 USER -0.2497
-2.1139 WINRAR -0.2497
-1.8129 YOUTUBE -0.2440

\2-grams:
-1.1614 <s> CLOSE 0.0000
-1.7634 <s> DISPLAY 0.0000
-1.4624 <s> GET 0.0000
-1.7634 <s> NEXT 0.0000
-0.6173 <s> OPEN 0.0000
-0.9183 <s> SHOW 0.0000
-0.3010 BERLIN </s> -0.3010
-0.3010 BROWSER </s> -0.3010
-0.9031 CLOSE BROWSER 0.0000
-0.9031 CLOSE MEDIA 0.0000
-0.9031 CLOSE NOTEPAD 0.0000
-0.9031 CLOSE WINRAR 0.0000
-0.3010 CONNECTED USER 0.0000
-0.3010 DATE </s> -0.3010
-0.3010 DISPLAY METEO 0.0000
-0.3010 DUBAI </s> -0.3010
-0.3010 FACEBOOK </s> -0.3010
-0.3010 FUNNY </s> -0.3010
-0.6021 GET CONNECTED 0.0000
-0.6021 GET MAC 0.0000
-0.3010 HOUSE </s> -0.3010
-0.3010 LONDON </s> -0.3010
-0.3010 MAC </s> -0.3010
-0.3010 MAIL </s> -0.3010
-0.3010 MEDIA PLAYER 0.0000
-0.3010 METEO </s> -0.3010
-0.3010 NEXT TRAIN 0.0000
-0.3010 NOTEPAD </s> -0.3010
-1.4472 OPEN BROWSER 0.0000
-1.4472 OPEN FACEBOOK 0.0000
-1.4472 OPEN MAIL 0.0000
-1.4472 OPEN MEDIA 0.0000
-1.4472 OPEN NOTEPAD 0.0000
-0.8451 OPEN REDDIT 0.0000
-1.4472 OPEN WINRAR 0.0000
-0.8451 OPEN YOUTUBE 0.0000
-0.3010 OPERA </s> -0.3010
-0.3010 PLAYER </s> -0.3010
-0.3010 POPULAR </s> -0.3010
-0.3010 RANDOM </s> -0.3010
-0.9031 REDDIT </s> -0.3010
-0.9031 REDDIT FUNNY 0.0000
-0.9031 REDDIT POPULAR 0.0000
-0.9031 REDDIT RANDOM 0.0000
-0.3010 ROME </s> -0.3010
-1.1461 SHOW DATE 0.0000
-0.3680 SHOW TIME 0.0000
-0.3010 SINGAPORE </s> -0.3010
-0.3010 TECHNO </s> -0.3010
-1.0792 TIME </s> -0.3010
-1.0792 TIME BERLIN 0.0000
-1.0792 TIME DUBAI 0.0000
-1.0792 TIME LONDON 0.0000
-1.0792 TIME ROME 0.0000
-1.0792 TIME SINGAPORE 0.0000
-0.3010 TRAIN </s> -0.3010
-0.3010 USER </s> -0.3010
-0.3010 WINRAR </s> -0.3010
-0.9031 YOUTUBE </s> -0.3010
-0.9031 YOUTUBE HOUSE 0.0000
-0.9031 YOUTUBE OPERA 0.0000
-0.9031 YOUTUBE TECHNO 0.0000

\3-grams:
-0.9031 <s> CLOSE BROWSER
-0.9031 <s> CLOSE MEDIA
-0.9031 <s> CLOSE NOTEPAD
-0.9031 <s> CLOSE WINRAR
-0.3010 <s> DISPLAY METEO
-0.6021 <s> GET CONNECTED
-0.6021 <s> GET MAC
-0.3010 <s> NEXT TRAIN
-1.4472 <s> OPEN BROWSER
-1.4472 <s> OPEN FACEBOOK
-1.4472 <s> OPEN MAIL
-1.4472 <s> OPEN MEDIA
-1.4472 <s> OPEN NOTEPAD
-0.8451 <s> OPEN REDDIT
-1.4472 <s> OPEN WINRAR
-0.8451 <s> OPEN YOUTUBE
-1.1461 <s> SHOW DATE
-0.3680 <s> SHOW TIME
-0.3010 CLOSE BROWSER </s>
-0.3010 CLOSE MEDIA PLAYER
-0.3010 CLOSE NOTEPAD </s>
-0.3010 CLOSE WINRAR </s>
-0.3010 CONNECTED USER </s>
-0.3010 DISPLAY METEO </s>
-0.3010 GET CONNECTED USER
-0.3010 GET MAC </s>
-0.3010 MEDIA PLAYER </s>
-0.3010 NEXT TRAIN </s>
-0.3010 OPEN BROWSER </s>
-0.3010 OPEN FACEBOOK </s>
-0.3010 OPEN MAIL </s>
-0.3010 OPEN MEDIA PLAYER
-0.3010 OPEN NOTEPAD </s>
-0.9031 OPEN REDDIT </s>
-0.9031 OPEN REDDIT FUNNY
-0.9031 OPEN REDDIT POPULAR
-0.9031 OPEN REDDIT RANDOM
-0.3010 OPEN WINRAR </s>
-0.9031 OPEN YOUTUBE </s>
-0.9031 OPEN YOUTUBE HOUSE
-0.9031 OPEN YOUTUBE OPERA
-0.9031 OPEN YOUTUBE TECHNO
-0.3010 REDDIT FUNNY </s>
-0.3010 REDDIT POPULAR </s>
-0.3010 REDDIT RANDOM </s>
-0.3010 SHOW DATE </s>
-1.0792 SHOW TIME </s>
-1.0792 SHOW TIME BERLIN
-1.0792 SHOW TIME DUBAI
-1.0792 SHOW TIME LONDON
-1.0792 SHOW TIME ROME
-1.0792 SHOW TIME SINGAPORE
-0.3010 TIME BERLIN </s>
-0.3010 TIME DUBAI </s>
-0.3010 TIME LONDON </s>
-0.3010 TIME ROME </s>
-0.3010 TIME SINGAPORE </s>
-0.3010 YOUTUBE HOUSE </s>
-0.3010 YOUTUBE OPERA </s>
-0.3010 YOUTUBE TECHNO </s>

\end\
